<?xml version="1.0"?>
<opencv_storage>
<cascade>
  <stageType>BOOST</stageType>
  <featureType>HAAR</featureType>
  <height>40</height>
  <width>16</width>
  <stageParams>
    <boostType>GAB</boostType>
    <minHitRate>9.9900001287460327e-001</minHitRate>
    <maxFalseAlarm>5.0000000000000000e-001</maxFalseAlarm>
    <weightTrimRate>9.4999998807907104e-001</weightTrimRate>
    <maxDepth>1</maxDepth>
    <maxWeakCount>100</maxWeakCount></stageParams>
  <featureParams>
    <maxCatCount>0</maxCatCount>
    <featSize>1</featSize>
    <mode>ALL</mode></featureParams>
  <stageNum>6</stageNum>
  <stages>
    <!-- stage 0 -->
    <_>
      <maxWeakCount>2</maxWeakCount>
      <stageThreshold>-3.0012732371687889e-002</stageThreshold>
      <weakClassifiers>
        <_>
          <internalNodes>
            0 -1 4 5.0301637500524521e-002</internalNodes>
          <leafValues>
            -9.7614312171936035e-001 9.5890408754348755e-001</leafValues></_>
        <_>
          <internalNodes>
            0 -1 6 2.4535119533538818e-002</internalNodes>
          <leafValues>
            -9.7260320186614990e-001 9.4613039493560791e-001</leafValues></_></weakClassifiers></_>
    <!-- stage 1 -->
    <_>
      <maxWeakCount>2</maxWeakCount>
      <stageThreshold>-1.8641373515129089e-001</stageThreshold>
      <weakClassifiers>
        <_>
          <internalNodes>
            0 -1 2 2.5581035017967224e-001</internalNodes>
          <leafValues>
            -8.7809520959854126e-001 8.8709676265716553e-001</leafValues></_>
        <_>
          <internalNodes>
            0 -1 3 -1.8977217376232147e-002</internalNodes>
          <leafValues>
            6.9168150424957275e-001 -9.7956007719039917e-001</leafValues></_></weakClassifiers></_>
    <!-- stage 2 -->
    <_>
      <maxWeakCount>2</maxWeakCount>
      <stageThreshold>-2.0261546969413757e-001</stageThreshold>
      <weakClassifiers>
        <_>
          <internalNodes>
            0 -1 7 -1.0126070678234100e-001</internalNodes>
          <leafValues>
            8.8535034656524658e-001 -9.9593496322631836e-001</leafValues></_>
        <_>
          <internalNodes>
            0 -1 8 -5.6284114718437195e-002</internalNodes>
          <leafValues>
            7.9331946372985840e-001 -9.7507011890411377e-001</leafValues></_></weakClassifiers></_>
    <!-- stage 3 -->
    <_>
      <maxWeakCount>2</maxWeakCount>
      <stageThreshold>-3.0071717500686646e-001</stageThreshold>
      <weakClassifiers>
        <_>
          <internalNodes>
            0 -1 1 -1.1006377637386322e-002</internalNodes>
          <leafValues>
            8.1208056211471558e-001 -9.4400000572204590e-001</leafValues></_>
        <_>
          <internalNodes>
            0 -1 11 -1.1242287233471870e-002</internalNodes>
          <leafValues>
            6.4328283071517944e-001 -9.5253109931945801e-001</leafValues></_></weakClassifiers></_>
    <!-- stage 4 -->
    <_>
      <maxWeakCount>2</maxWeakCount>
      <stageThreshold>-4.3776702880859375e-001</stageThreshold>
      <weakClassifiers>
        <_>
          <internalNodes>
            0 -1 9 -2.9096477665007114e-003</internalNodes>
          <leafValues>
            3.5159817337989807e-001 -9.9534881114959717e-001</leafValues></_>
        <_>
          <internalNodes>
            0 -1 10 9.2010438442230225e-002</internalNodes>
          <leafValues>
            -7.8936523199081421e-001 8.0301100015640259e-001</leafValues></_></weakClassifiers></_>
    <!-- stage 5 -->
    <_>
      <maxWeakCount>2</maxWeakCount>
      <stageThreshold>-5.5095577239990234e-001</stageThreshold>
      <weakClassifiers>
        <_>
          <internalNodes>
            0 -1 0 -3.6798883229494095e-002</internalNodes>
          <leafValues>
            3.8999998569488525e-001 -9.5545655488967896e-001</leafValues></_>
        <_>
          <internalNodes>
            0 -1 5 -8.8025972945615649e-004</internalNodes>
          <leafValues>
            4.0450078248977661e-001 -1.</leafValues></_></weakClassifiers></_></stages>
  <features>
    <_>
      <rects>
        <_>
          0 12 4 17 -1.</_>
        <_>
          2 12 2 17 2.</_></rects>
      <tilted>0</tilted></_>
    <_>
      <rects>
        <_>
          0 15 2 9 -1.</_>
        <_>
          1 15 1 9 2.</_></rects>
      <tilted>0</tilted></_>
    <_>
      <rects>
        <_>
          1 29 15 6 -1.</_>
        <_>
          6 31 5 2 9.</_></rects>
      <tilted>0</tilted></_>
    <_>
      <rects>
        <_>
          2 3 6 10 -1.</_>
        <_>
          2 8 6 5 2.</_></rects>
      <tilted>0</tilted></_>
    <_>
      <rects>
        <_>
          3 30 12 3 -1.</_>
        <_>
          7 31 4 1 9.</_></rects>
      <tilted>0</tilted></_>
    <_>
      <rects>
        <_>
          4 22 2 2 -1.</_>
        <_>
          4 23 2 1 2.</_></rects>
      <tilted>0</tilted></_>
    <_>
      <rects>
        <_>
          5 28 7 4 -1.</_>
        <_>
          5 30 7 2 2.</_></rects>
      <tilted>0</tilted></_>
    <_>
      <rects>
        <_>
          6 8 6 28 -1.</_>
        <_>
          6 15 6 14 2.</_></rects>
      <tilted>0</tilted></_>
    <_>
      <rects>
        <_>
          7 11 3 24 -1.</_>
        <_>
          7 17 3 12 2.</_></rects>
      <tilted>0</tilted></_>
    <_>
      <rects>
        <_>
          7 19 5 3 -1.</_>
        <_>
          7 20 5 1 3.</_></rects>
      <tilted>0</tilted></_>
    <_>
      <rects>
        <_>
          7 27 8 4 -1.</_>
        <_>
          9 29 4 4 2.</_></rects>
      <tilted>1</tilted></_>
    <_>
      <rects>
        <_>
          12 10 4 21 -1.</_>
        <_>
          13 10 2 21 2.</_></rects>
      <tilted>0</tilted></_></features></cascade>
</opencv_storage>
