<?xml version="1.0"?>
<opencv_storage>
<cascade>
  <stageType>BOOST</stageType>
  <featureType>HAAR</featureType>
  <height>40</height>
  <width>16</width>
  <stageParams>
    <boostType>GAB</boostType>
    <minHitRate>9.9900001287460327e-001</minHitRate>
    <maxFalseAlarm>5.0000000000000000e-001</maxFalseAlarm>
    <weightTrimRate>9.4999998807907104e-001</weightTrimRate>
    <maxDepth>1</maxDepth>
    <maxWeakCount>100</maxWeakCount></stageParams>
  <featureParams>
    <maxCatCount>0</maxCatCount>
    <featSize>1</featSize>
    <mode>ALL</mode></featureParams>
  <stageNum>8</stageNum>
  <stages>
    <!-- stage 0 -->
    <_>
      <maxWeakCount>2</maxWeakCount>
      <stageThreshold>-8.3534732460975647e-002</stageThreshold>
      <weakClassifiers>
        <_>
          <internalNodes>
            0 -1 4 7.2585381567478180e-002</internalNodes>
          <leafValues>
            -9.6047431230545044e-001 9.7269624471664429e-001</leafValues></_>
        <_>
          <internalNodes>
            0 -1 11 4.5914806425571442e-002</internalNodes>
          <leafValues>
            -9.8823070526123047e-001 8.7693959474563599e-001</leafValues></_></weakClassifiers></_>
    <!-- stage 1 -->
    <_>
      <maxWeakCount>2</maxWeakCount>
      <stageThreshold>-3.0717927217483521e-001</stageThreshold>
      <weakClassifiers>
        <_>
          <internalNodes>
            0 -1 1 -2.8481811285018921e-002</internalNodes>
          <leafValues>
            7.3293769359588623e-001 -9.6969699859619141e-001</leafValues></_>
        <_>
          <internalNodes>
            0 -1 6 -1.6888054087758064e-002</internalNodes>
          <leafValues>
            6.6251766681671143e-001 -9.5991533994674683e-001</leafValues></_></weakClassifiers></_>
    <!-- stage 2 -->
    <_>
      <maxWeakCount>3</maxWeakCount>
      <stageThreshold>-9.7102445363998413e-001</stageThreshold>
      <weakClassifiers>
        <_>
          <internalNodes>
            0 -1 17 -4.0862072259187698e-002</internalNodes>
          <leafValues>
            9.3006992340087891e-001 -9.1033136844635010e-001</leafValues></_>
        <_>
          <internalNodes>
            0 -1 9 -7.8826397657394409e-002</internalNodes>
          <leafValues>
            7.1121114492416382e-001 -9.7482126951217651e-001</leafValues></_>
        <_>
          <internalNodes>
            0 -1 13 -7.0713058114051819e-002</internalNodes>
          <leafValues>
            9.1412818431854248e-001 -7.4030512571334839e-001</leafValues></_></weakClassifiers></_>
    <!-- stage 3 -->
    <_>
      <maxWeakCount>2</maxWeakCount>
      <stageThreshold>-2.4597208201885223e-001</stageThreshold>
      <weakClassifiers>
        <_>
          <internalNodes>
            0 -1 18 6.8883178755640984e-003</internalNodes>
          <leafValues>
            -9.9545454978942871e-001 6.6016715764999390e-001</leafValues></_>
        <_>
          <internalNodes>
            0 -1 2 1.6714468598365784e-002</internalNodes>
          <leafValues>
            -9.0613919496536255e-001 7.7843207120895386e-001</leafValues></_></weakClassifiers></_>
    <!-- stage 4 -->
    <_>
      <maxWeakCount>2</maxWeakCount>
      <stageThreshold>-2.3690330982208252e-001</stageThreshold>
      <weakClassifiers>
        <_>
          <internalNodes>
            0 -1 12 -3.0239508487284184e-003</internalNodes>
          <leafValues>
            6.6197180747985840e-001 -9.8198199272155762e-001</leafValues></_>
        <_>
          <internalNodes>
            0 -1 0 -1.3790970668196678e-002</internalNodes>
          <leafValues>
            7.4507868289947510e-001 -8.9453214406967163e-001</leafValues></_></weakClassifiers></_>
    <!-- stage 5 -->
    <_>
      <maxWeakCount>2</maxWeakCount>
      <stageThreshold>-1.8352265655994415e-001</stageThreshold>
      <weakClassifiers>
        <_>
          <internalNodes>
            0 -1 3 2.5746017694473267e-001</internalNodes>
          <leafValues>
            -7.9553902149200439e-001 8.6973178386688232e-001</leafValues></_>
        <_>
          <internalNodes>
            0 -1 8 1.6848328523337841e-003</internalNodes>
          <leafValues>
            -9.9591439962387085e-001 6.1201637983322144e-001</leafValues></_></weakClassifiers></_>
    <!-- stage 6 -->
    <_>
      <maxWeakCount>2</maxWeakCount>
      <stageThreshold>-2.3177817463874817e-001</stageThreshold>
      <weakClassifiers>
        <_>
          <internalNodes>
            0 -1 10 2.6197224855422974e-001</internalNodes>
          <leafValues>
            -7.4311923980712891e-001 8.0314958095550537e-001</leafValues></_>
        <_>
          <internalNodes>
            0 -1 7 -1.9763039890676737e-003</internalNodes>
          <leafValues>
            5.1134109497070313e-001 -1.</leafValues></_></weakClassifiers></_>
    <!-- stage 7 -->
    <_>
      <maxWeakCount>4</maxWeakCount>
      <stageThreshold>-7.3881000280380249e-001</stageThreshold>
      <weakClassifiers>
        <_>
          <internalNodes>
            0 -1 14 -1.0459478944540024e-001</internalNodes>
          <leafValues>
            6.9230771064758301e-001 -7.4144488573074341e-001</leafValues></_>
        <_>
          <internalNodes>
            0 -1 15 -1.0904259979724884e-002</internalNodes>
          <leafValues>
            5.7476812601089478e-001 -8.4831619262695313e-001</leafValues></_>
        <_>
          <internalNodes>
            0 -1 16 -2.1326573914848268e-004</internalNodes>
          <leafValues>
            5.0037646293640137e-001 -9.6708130836486816e-001</leafValues></_>
        <_>
          <internalNodes>
            0 -1 5 1.8350449390709400e-003</internalNodes>
          <leafValues>
            -1. 3.9494806528091431e-001</leafValues></_></weakClassifiers></_></stages>
  <features>
    <_>
      <rects>
        <_>
          0 9 2 15 -1.</_>
        <_>
          1 9 1 15 2.</_></rects>
      <tilted>0</tilted></_>
    <_>
      <rects>
        <_>
          0 12 4 18 -1.</_>
        <_>
          2 12 2 18 2.</_></rects>
      <tilted>0</tilted></_>
    <_>
      <rects>
        <_>
          0 31 12 1 -1.</_>
        <_>
          6 31 6 1 2.</_></rects>
      <tilted>0</tilted></_>
    <_>
      <rects>
        <_>
          1 29 15 6 -1.</_>
        <_>
          6 31 5 2 9.</_></rects>
      <tilted>0</tilted></_>
    <_>
      <rects>
        <_>
          1 30 15 3 -1.</_>
        <_>
          6 31 5 1 9.</_></rects>
      <tilted>0</tilted></_>
    <_>
      <rects>
        <_>
          2 19 6 3 -1.</_>
        <_>
          4 20 2 1 9.</_></rects>
      <tilted>0</tilted></_>
    <_>
      <rects>
        <_>
          3 3 5 10 -1.</_>
        <_>
          3 8 5 5 2.</_></rects>
      <tilted>0</tilted></_>
    <_>
      <rects>
        <_>
          3 14 4 6 -1.</_>
        <_>
          3 14 2 3 2.</_>
        <_>
          5 17 2 3 2.</_></rects>
      <tilted>0</tilted></_>
    <_>
      <rects>
        <_>
          5 19 1 6 -1.</_>
        <_>
          5 21 1 2 3.</_></rects>
      <tilted>0</tilted></_>
    <_>
      <rects>
        <_>
          6 11 5 24 -1.</_>
        <_>
          6 17 5 12 2.</_></rects>
      <tilted>0</tilted></_>
    <_>
      <rects>
        <_>
          6 25 6 15 -1.</_>
        <_>
          8 30 2 5 9.</_></rects>
      <tilted>0</tilted></_>
    <_>
      <rects>
        <_>
          6 25 6 8 -1.</_>
        <_>
          6 29 6 4 2.</_></rects>
      <tilted>0</tilted></_>
    <_>
      <rects>
        <_>
          7 19 5 3 -1.</_>
        <_>
          7 20 5 1 3.</_></rects>
      <tilted>0</tilted></_>
    <_>
      <rects>
        <_>
          7 25 6 4 -1.</_>
        <_>
          7 25 3 4 2.</_></rects>
      <tilted>1</tilted></_>
    <_>
      <rects>
        <_>
          7 25 6 5 -1.</_>
        <_>
          7 25 3 5 2.</_></rects>
      <tilted>1</tilted></_>
    <_>
      <rects>
        <_>
          8 1 6 12 -1.</_>
        <_>
          8 4 6 6 2.</_></rects>
      <tilted>0</tilted></_>
    <_>
      <rects>
        <_>
          8 13 1 4 -1.</_>
        <_>
          8 14 1 2 2.</_></rects>
      <tilted>0</tilted></_>
    <_>
      <rects>
        <_>
          13 26 2 6 -1.</_>
        <_>
          13 26 2 3 2.</_></rects>
      <tilted>1</tilted></_>
    <_>
      <rects>
        <_>
          14 13 2 14 -1.</_>
        <_>
          15 13 1 14 2.</_></rects>
      <tilted>0</tilted></_></features></cascade>
</opencv_storage>
