<?xml version="1.0"?>
<opencv_storage>
<cascade>
  <stageType>BOOST</stageType>
  <featureType>HAAR</featureType>
  <height>40</height>
  <width>16</width>
  <stageParams>
    <boostType>GAB</boostType>
    <minHitRate>9.9900001287460327e-001</minHitRate>
    <maxFalseAlarm>5.0000000000000000e-001</maxFalseAlarm>
    <weightTrimRate>9.4999998807907104e-001</weightTrimRate>
    <maxDepth>1</maxDepth>
    <maxWeakCount>100</maxWeakCount></stageParams>
  <featureParams>
    <maxCatCount>0</maxCatCount>
    <featSize>1</featSize>
    <mode>ALL</mode></featureParams>
  <stageNum>11</stageNum>
  <stages>
    <!-- stage 0 -->
    <_>
      <maxWeakCount>3</maxWeakCount>
      <stageThreshold>-1.0771449804306030e+000</stageThreshold>
      <weakClassifiers>
        <_>
          <internalNodes>
            0 -1 8 -7.0711880922317505e-002</internalNodes>
          <leafValues>
            6.5168541669845581e-001 -9.9150741100311279e-001</leafValues></_>
        <_>
          <internalNodes>
            0 -1 0 -1.2476230040192604e-002</internalNodes>
          <leafValues>
            6.9043236970901489e-001 -8.8787162303924561e-001</leafValues></_>
        <_>
          <internalNodes>
            0 -1 7 2.1264219284057617e-001</internalNodes>
          <leafValues>
            -7.7606987953186035e-001 9.2464756965637207e-001</leafValues></_></weakClassifiers></_>
    <!-- stage 1 -->
    <_>
      <maxWeakCount>4</maxWeakCount>
      <stageThreshold>-9.0283048152923584e-001</stageThreshold>
      <weakClassifiers>
        <_>
          <internalNodes>
            0 -1 11 1.3401910662651062e-001</internalNodes>
          <leafValues>
            -8.3203125000000000e-001 5.4744523763656616e-001</leafValues></_>
        <_>
          <internalNodes>
            0 -1 23 -4.0169700514525175e-004</internalNodes>
          <leafValues>
            4.6081390976905823e-001 -9.5513409376144409e-001</leafValues></_>
        <_>
          <internalNodes>
            0 -1 14 -5.9451133012771606e-002</internalNodes>
          <leafValues>
            4.2522960901260376e-001 -9.6001750230789185e-001</leafValues></_>
        <_>
          <internalNodes>
            0 -1 30 1.1719824746251106e-002</internalNodes>
          <leafValues>
            -1. 4.5910525321960449e-001</leafValues></_></weakClassifiers></_>
    <!-- stage 2 -->
    <_>
      <maxWeakCount>3</maxWeakCount>
      <stageThreshold>-1.1854869127273560e+000</stageThreshold>
      <weakClassifiers>
        <_>
          <internalNodes>
            0 -1 12 -2.2270989418029785e-001</internalNodes>
          <leafValues>
            6.9230771064758301e-001 -9.7500002384185791e-001</leafValues></_>
        <_>
          <internalNodes>
            0 -1 27 -1.3709709048271179e-001</internalNodes>
          <leafValues>
            9.5358264446258545e-001 -8.1069046258926392e-001</leafValues></_>
        <_>
          <internalNodes>
            0 -1 6 -1.6823199391365051e-001</internalNodes>
          <leafValues>
            6.0020351409912109e-001 -1.</leafValues></_></weakClassifiers></_>
    <!-- stage 3 -->
    <_>
      <maxWeakCount>3</maxWeakCount>
      <stageThreshold>-1.1964932680130005e+000</stageThreshold>
      <weakClassifiers>
        <_>
          <internalNodes>
            0 -1 10 4.2237017303705215e-002</internalNodes>
          <leafValues>
            -8.2899630069732666e-001 8.5585588216781616e-001</leafValues></_>
        <_>
          <internalNodes>
            0 -1 13 1.7957191914319992e-002</internalNodes>
          <leafValues>
            -8.9517033100128174e-001 5.7624328136444092e-001</leafValues></_>
        <_>
          <internalNodes>
            0 -1 1 -1.6465586423873901e-001</internalNodes>
          <leafValues>
            5.2767330408096313e-001 -9.7936004400253296e-001</leafValues></_></weakClassifiers></_>
    <!-- stage 4 -->
    <_>
      <maxWeakCount>2</maxWeakCount>
      <stageThreshold>-4.1271954774856567e-001</stageThreshold>
      <weakClassifiers>
        <_>
          <internalNodes>
            0 -1 28 -6.8243041634559631e-002</internalNodes>
          <leafValues>
            7.9166668653488159e-001 -7.7215188741683960e-001</leafValues></_>
        <_>
          <internalNodes>
            0 -1 32 8.1381422933191061e-004</internalNodes>
          <leafValues>
            -9.8915922641754150e-001 3.5943236947059631e-001</leafValues></_></weakClassifiers></_>
    <!-- stage 5 -->
    <_>
      <maxWeakCount>3</maxWeakCount>
      <stageThreshold>-1.4825353622436523e+000</stageThreshold>
      <weakClassifiers>
        <_>
          <internalNodes>
            0 -1 4 -1.9026964437216520e-003</internalNodes>
          <leafValues>
            2.3444975912570953e-001 -9.0909093618392944e-001</leafValues></_>
        <_>
          <internalNodes>
            0 -1 17 3.2675109803676605e-002</internalNodes>
          <leafValues>
            -8.4907746315002441e-001 4.1248691082000732e-001</leafValues></_>
        <_>
          <internalNodes>
            0 -1 16 -1.5221035573631525e-003</internalNodes>
          <leafValues>
            2.7563300728797913e-001 -1.</leafValues></_></weakClassifiers></_>
    <!-- stage 6 -->
    <_>
      <maxWeakCount>3</maxWeakCount>
      <stageThreshold>-1.3859348297119141e+000</stageThreshold>
      <weakClassifiers>
        <_>
          <internalNodes>
            0 -1 24 5.8785844594240189e-002</internalNodes>
          <leafValues>
            -8.0544745922088623e-001 4.6666666865348816e-001</leafValues></_>
        <_>
          <internalNodes>
            0 -1 18 -1.2329036835581064e-003</internalNodes>
          <leafValues>
            3.2428267598152161e-001 -9.2153012752532959e-001</leafValues></_>
        <_>
          <internalNodes>
            0 -1 15 -4.0734730660915375e-002</internalNodes>
          <leafValues>
            -9.8515790700912476e-001 3.4104272723197937e-001</leafValues></_></weakClassifiers></_>
    <!-- stage 7 -->
    <_>
      <maxWeakCount>4</maxWeakCount>
      <stageThreshold>-8.7158590555191040e-001</stageThreshold>
      <weakClassifiers>
        <_>
          <internalNodes>
            0 -1 25 -1.5777567028999329e-001</internalNodes>
          <leafValues>
            7.6470589637756348e-001 -7.3758864402770996e-001</leafValues></_>
        <_>
          <internalNodes>
            0 -1 2 -1.4204120263457298e-002</internalNodes>
          <leafValues>
            4.4716498255729675e-001 -8.4195148944854736e-001</leafValues></_>
        <_>
          <internalNodes>
            0 -1 20 -2.3379902995657176e-004</internalNodes>
          <leafValues>
            3.6683437228202820e-001 -9.0499901771545410e-001</leafValues></_>
        <_>
          <internalNodes>
            0 -1 29 1.1544367589522153e-004</internalNodes>
          <leafValues>
            -9.4165796041488647e-001 3.4111988544464111e-001</leafValues></_></weakClassifiers></_>
    <!-- stage 8 -->
    <_>
      <maxWeakCount>2</maxWeakCount>
      <stageThreshold>-6.0243564844131470e-001</stageThreshold>
      <weakClassifiers>
        <_>
          <internalNodes>
            0 -1 9 8.7800785899162292e-002</internalNodes>
          <leafValues>
            -7.7864074707031250e-001 3.7313431501388550e-001</leafValues></_>
        <_>
          <internalNodes>
            0 -1 26 3.4542044159024954e-003</internalNodes>
          <leafValues>
            -9.7556996345520020e-001 2.8060185909271240e-001</leafValues></_></weakClassifiers></_>
    <!-- stage 9 -->
    <_>
      <maxWeakCount>2</maxWeakCount>
      <stageThreshold>-5.4221600294113159e-001</stageThreshold>
      <weakClassifiers>
        <_>
          <internalNodes>
            0 -1 5 5.2763128280639648e-001</internalNodes>
          <leafValues>
            -7.4074071645736694e-001 4.4954127073287964e-001</leafValues></_>
        <_>
          <internalNodes>
            0 -1 31 -6.6542631248012185e-004</internalNodes>
          <leafValues>
            2.5394779443740845e-001 -9.9175727367401123e-001</leafValues></_></weakClassifiers></_>
    <!-- stage 10 -->
    <_>
      <maxWeakCount>4</maxWeakCount>
      <stageThreshold>-1.2093435525894165e+000</stageThreshold>
      <weakClassifiers>
        <_>
          <internalNodes>
            0 -1 3 -4.5799375511705875e-003</internalNodes>
          <leafValues>
            3.9999999105930328e-002 -8.4905660152435303e-001</leafValues></_>
        <_>
          <internalNodes>
            0 -1 19 3.1637062784284353e-004</internalNodes>
          <leafValues>
            -8.2043075561523438e-001 2.9960182309150696e-001</leafValues></_>
        <_>
          <internalNodes>
            0 -1 22 -1.7132722859969363e-005</internalNodes>
          <leafValues>
            2.8234437108039856e-001 -9.5787924528121948e-001</leafValues></_>
        <_>
          <internalNodes>
            0 -1 21 -3.4207117278128862e-003</internalNodes>
          <leafValues>
            2.9799047112464905e-001 -9.7514092922210693e-001</leafValues></_></weakClassifiers></_></stages>
  <features>
    <_>
      <rects>
        <_>
          0 8 2 28 -1.</_>
        <_>
          1 8 1 28 2.</_></rects>
      <tilted>0</tilted></_>
    <_>
      <rects>
        <_>
          0 8 15 27 -1.</_>
        <_>
          5 17 5 9 9.</_></rects>
      <tilted>0</tilted></_>
    <_>
      <rects>
        <_>
          0 10 6 16 -1.</_>
        <_>
          2 10 2 16 3.</_></rects>
      <tilted>0</tilted></_>
    <_>
      <rects>
        <_>
          0 17 3 12 -1.</_>
        <_>
          1 17 1 12 3.</_></rects>
      <tilted>0</tilted></_>
    <_>
      <rects>
        <_>
          0 19 2 3 -1.</_>
        <_>
          1 19 1 3 2.</_></rects>
      <tilted>0</tilted></_>
    <_>
      <rects>
        <_>
          1 0 15 15 -1.</_>
        <_>
          6 5 5 5 9.</_></rects>
      <tilted>0</tilted></_>
    <_>
      <rects>
        <_>
          1 3 15 20 -1.</_>
        <_>
          1 13 15 10 2.</_></rects>
      <tilted>0</tilted></_>
    <_>
      <rects>
        <_>
          1 5 15 9 -1.</_>
        <_>
          6 8 5 3 9.</_></rects>
      <tilted>0</tilted></_>
    <_>
      <rects>
        <_>
          1 8 13 8 -1.</_>
        <_>
          1 12 13 4 2.</_></rects>
      <tilted>0</tilted></_>
    <_>
      <rects>
        <_>
          2 3 12 9 -1.</_>
        <_>
          2 6 12 3 3.</_></rects>
      <tilted>0</tilted></_>
    <_>
      <rects>
        <_>
          2 5 12 7 -1.</_>
        <_>
          5 5 6 7 2.</_></rects>
      <tilted>0</tilted></_>
    <_>
      <rects>
        <_>
          3 2 11 12 -1.</_>
        <_>
          3 6 11 4 3.</_></rects>
      <tilted>0</tilted></_>
    <_>
      <rects>
        <_>
          3 3 10 30 -1.</_>
        <_>
          3 18 10 15 2.</_></rects>
      <tilted>0</tilted></_>
    <_>
      <rects>
        <_>
          3 6 12 6 -1.</_>
        <_>
          3 8 12 2 3.</_></rects>
      <tilted>0</tilted></_>
    <_>
      <rects>
        <_>
          3 9 12 12 -1.</_>
        <_>
          3 13 12 4 3.</_></rects>
      <tilted>0</tilted></_>
    <_>
      <rects>
        <_>
          3 14 7 21 -1.</_>
        <_>
          3 21 7 7 3.</_></rects>
      <tilted>0</tilted></_>
    <_>
      <rects>
        <_>
          3 20 7 9 -1.</_>
        <_>
          3 23 7 3 3.</_></rects>
      <tilted>0</tilted></_>
    <_>
      <rects>
        <_>
          4 2 10 8 -1.</_>
        <_>
          4 6 10 4 2.</_></rects>
      <tilted>0</tilted></_>
    <_>
      <rects>
        <_>
          4 13 4 10 -1.</_>
        <_>
          4 13 2 5 2.</_>
        <_>
          6 18 2 5 2.</_></rects>
      <tilted>0</tilted></_>
    <_>
      <rects>
        <_>
          4 22 2 3 -1.</_>
        <_>
          5 22 1 3 2.</_></rects>
      <tilted>0</tilted></_>
    <_>
      <rects>
        <_>
          5 15 2 6 -1.</_>
        <_>
          5 15 1 3 2.</_>
        <_>
          6 18 1 3 2.</_></rects>
      <tilted>0</tilted></_>
    <_>
      <rects>
        <_>
          5 19 10 6 -1.</_>
        <_>
          5 22 10 3 2.</_></rects>
      <tilted>0</tilted></_>
    <_>
      <rects>
        <_>
          6 14 4 3 -1.</_>
        <_>
          6 15 4 1 3.</_></rects>
      <tilted>0</tilted></_>
    <_>
      <rects>
        <_>
          6 19 4 2 -1.</_>
        <_>
          6 20 4 1 2.</_></rects>
      <tilted>0</tilted></_>
    <_>
      <rects>
        <_>
          7 2 8 6 -1.</_>
        <_>
          5 4 8 2 3.</_></rects>
      <tilted>1</tilted></_>
    <_>
      <rects>
        <_>
          7 4 4 22 -1.</_>
        <_>
          7 15 4 11 2.</_></rects>
      <tilted>0</tilted></_>
    <_>
      <rects>
        <_>
          7 14 4 7 -1.</_>
        <_>
          7 14 2 7 2.</_></rects>
      <tilted>1</tilted></_>
    <_>
      <rects>
        <_>
          8 4 6 24 -1.</_>
        <_>
          8 16 6 12 2.</_></rects>
      <tilted>0</tilted></_>
    <_>
      <rects>
        <_>
          8 6 2 20 -1.</_>
        <_>
          8 16 2 10 2.</_></rects>
      <tilted>0</tilted></_>
    <_>
      <rects>
        <_>
          10 17 4 4 -1.</_>
        <_>
          10 17 2 2 2.</_>
        <_>
          12 19 2 2 2.</_></rects>
      <tilted>0</tilted></_>
    <_>
      <rects>
        <_>
          10 19 5 8 -1.</_>
        <_>
          10 19 5 4 2.</_></rects>
      <tilted>1</tilted></_>
    <_>
      <rects>
        <_>
          13 17 3 9 -1.</_>
        <_>
          14 20 1 3 9.</_></rects>
      <tilted>0</tilted></_>
    <_>
      <rects>
        <_>
          14 15 2 8 -1.</_>
        <_>
          15 15 1 8 2.</_></rects>
      <tilted>0</tilted></_></features></cascade>
</opencv_storage>
