<?xml version="1.0"?>
<opencv_storage>
<cascade>
  <stageType>BOOST</stageType>
  <featureType>HAAR</featureType>
  <height>39</height>
  <width>39</width>
  <stageParams>
    <boostType>GAB</boostType>
    <minHitRate>9.9900001287460327e-001</minHitRate>
    <maxFalseAlarm>5.0000000000000000e-001</maxFalseAlarm>
    <weightTrimRate>9.4999998807907104e-001</weightTrimRate>
    <maxDepth>1</maxDepth>
    <maxWeakCount>100</maxWeakCount></stageParams>
  <featureParams>
    <maxCatCount>0</maxCatCount>
    <featSize>1</featSize>
    <mode>ALL</mode></featureParams>
  <stageNum>3</stageNum>
  <stages>
    <!-- stage 0 -->
    <_>
      <maxWeakCount>1</maxWeakCount>
      <stageThreshold>8.1818181276321411e-001</stageThreshold>
      <weakClassifiers>
        <_>
          <internalNodes>
            0 -1 0 -1.6667801886796951e-002</internalNodes>
          <leafValues>
            8.1818181276321411e-001 -1.</leafValues></_></weakClassifiers></_>
    <!-- stage 1 -->
    <_>
      <maxWeakCount>2</maxWeakCount>
      <stageThreshold>-3.5799169540405273e-001</stageThreshold>
      <weakClassifiers>
        <_>
          <internalNodes>
            0 -1 1 -2.6266497373580933e-001</internalNodes>
          <leafValues>
            6.3636362552642822e-001 -9.9599200487136841e-001</leafValues></_>
        <_>
          <internalNodes>
            0 -1 3 9.9296972155570984e-002</internalNodes>
          <leafValues>
            -9.9435532093048096e-001 8.0762237310409546e-001</leafValues></_></weakClassifiers></_>
    <!-- stage 2 -->
    <_>
      <maxWeakCount>2</maxWeakCount>
      <stageThreshold>-3.3062064647674561e-001</stageThreshold>
      <weakClassifiers>
        <_>
          <internalNodes>
            0 -1 2 -5.3590185940265656e-002</internalNodes>
          <leafValues>
            1. -9.8412698507308960e-001</leafValues></_>
        <_>
          <internalNodes>
            0 -1 4 1.4541686978191137e-003</internalNodes>
          <leafValues>
            -1. 6.5350633859634399e-001</leafValues></_></weakClassifiers></_></stages>
  <features>
    <_>
      <rects>
        <_>
          4 14 32 1 -1.</_>
        <_>
          12 14 16 1 2.</_></rects>
      <tilted>0</tilted></_>
    <_>
      <rects>
        <_>
          8 0 22 30 -1.</_>
        <_>
          8 15 22 15 2.</_></rects>
      <tilted>0</tilted></_>
    <_>
      <rects>
        <_>
          10 9 18 3 -1.</_>
        <_>
          16 10 6 1 9.</_></rects>
      <tilted>0</tilted></_>
    <_>
      <rects>
        <_>
          11 25 20 14 -1.</_>
        <_>
          11 32 20 7 2.</_></rects>
      <tilted>0</tilted></_>
    <_>
      <rects>
        <_>
          19 15 1 3 -1.</_>
        <_>
          19 16 1 1 3.</_></rects>
      <tilted>0</tilted></_></features></cascade>
</opencv_storage>
